Language model created by QuickLM on Sun Jan 30 14:37:22 EST 2022
Copyright (c) 1996-2010 Carnegie Mellon University and Alexander I. Rudnicky

The model is in standard ARPA format, designed by Doug Paul while he was at MITRE.

The code that was used to produce this language model is available in Open Source.
Please visit http://www.speech.cs.cmu.edu/tools/ for more information

The (fixed) discount mass is 0.5. The backoffs are computed using the ratio method.
This model based on a corpus of 9 sentences and 10 words

\data\
ngram 1=10
ngram 2=17
ngram 3=17

\1-grams:
-0.8909 </s> -0.3010
-0.8909 <s> -0.2413
-1.5441 CHROME -0.2413
-1.2430 CLOSE -0.2483
-1.5441 MUSIC -0.2413
-1.5441 NOTEPAD -0.2413
-1.3680 OPEN -0.2621
-1.8451 PLAY -0.2884
-1.8451 SHUTDOWN -0.2413
-1.5441 YOUTUBE -0.2413

\2-grams:
-0.6532 <s> CLOSE 0.0000
-0.7782 <s> OPEN 0.0000
-1.2553 <s> PLAY 0.0000
-1.2553 <s> SHUTDOWN 0.0000
-0.3010 CHROME </s> -0.3010
-0.9031 CLOSE CHROME 0.0000
-0.9031 CLOSE MUSIC 0.0000
-0.9031 CLOSE NOTEPAD 0.0000
-0.9031 CLOSE YOUTUBE 0.0000
-0.3010 MUSIC </s> -0.3010
-0.3010 NOTEPAD </s> -0.3010
-0.7782 OPEN CHROME 0.0000
-0.7782 OPEN NOTEPAD 0.0000
-0.7782 OPEN YOUTUBE 0.0000
-0.3010 PLAY MUSIC 0.0000
-0.3010 SHUTDOWN </s> -0.3010
-0.3010 YOUTUBE </s> -0.3010

\3-grams:
-0.9031 <s> CLOSE CHROME
-0.9031 <s> CLOSE MUSIC
-0.9031 <s> CLOSE NOTEPAD
-0.9031 <s> CLOSE YOUTUBE
-0.7782 <s> OPEN CHROME
-0.7782 <s> OPEN NOTEPAD
-0.7782 <s> OPEN YOUTUBE
-0.3010 <s> PLAY MUSIC
-0.3010 <s> SHUTDOWN </s>
-0.3010 CLOSE CHROME </s>
-0.3010 CLOSE MUSIC </s>
-0.3010 CLOSE NOTEPAD </s>
-0.3010 CLOSE YOUTUBE </s>
-0.3010 OPEN CHROME </s>
-0.3010 OPEN NOTEPAD </s>
-0.3010 OPEN YOUTUBE </s>
-0.3010 PLAY MUSIC </s>

\end\